digraph Tree {
node [shape=box, style="filled, rounded", color="black", fontname=helvetica] ;
edge [fontname=helvetica] ;
0 [label="C120: <= 0.367\nentropy = 0.999\nsamples = 12000\nvalue = [6258, 5742]", fillcolor="#fdf5ef"] ;
1 [label="B3: <= 0.5\nentropy = 0.999\nsamples = 11590\nvalue = [5994, 5596]", fillcolor="#fdf7f2"] ;
0 -> 1 [labeldistance=2.5, labelangle=45, headlabel="True"] ;
2 [label="C106: <= 0.144\nentropy = 0.973\nsamples = 7797\nvalue = [4647, 3150]", fillcolor="#f7d6bf"] ;
1 -> 2 ;
3 [label="C48: <= 1.406\nentropy = 0.978\nsamples = 7358\nvalue = [4319, 3039]", fillcolor="#f7dac4"] ;
2 -> 3 ;
4 [label="B2: <= 0.5\nentropy = 0.986\nsamples = 6384\nvalue = [3637, 2747]", fillcolor="#f9e0cf"] ;
3 -> 4 ;
5 [label="C40: <= 245.385\nentropy = 0.68\nsamples = 3104\nvalue = [2545, 559]", fillcolor="#eb9d64"] ;
4 -> 5 ;
6 [label="C102: <= 0.5\nentropy = 0.407\nsamples = 1647\nvalue = [1513, 134]", fillcolor="#e78c4b"] ;
5 -> 6 ;
7 [label="(...)", fillcolor="#C0C0C0"] ;
6 -> 7 ;
158 [label="(...)", fillcolor="#C0C0C0"] ;
6 -> 158 ;
363 [label="C101: <= 49.501\nentropy = 0.871\nsamples = 1457\nvalue = [1032, 425]", fillcolor="#f0b58b"] ;
5 -> 363 ;
364 [label="(...)", fillcolor="#C0C0C0"] ;
363 -> 364 ;
1037 [label="(...)", fillcolor="#C0C0C0"] ;
363 -> 1037 ;
1124 [label="C130: <= 0.13\nentropy = 0.918\nsamples = 3280\nvalue = [1092, 2188]", fillcolor="#9ccef2"] ;
4 -> 1124 ;
1125 [label="C105: <= 1.633\nentropy = 0.877\nsamples = 2853\nvalue = [846, 2007]", fillcolor="#8cc6f0"] ;
1124 -> 1125 ;
1126 [label="(...)", fillcolor="#C0C0C0"] ;
1125 -> 1126 ;
1863 [label="(...)", fillcolor="#C0C0C0"] ;
1125 -> 1863 ;
2802 [label="C41: <= 7541.325\nentropy = 0.983\nsamples = 427\nvalue = [246, 181]", fillcolor="#f8decb"] ;
1124 -> 2802 ;
2803 [label="(...)", fillcolor="#C0C0C0"] ;
2802 -> 2803 ;
2816 [label="(...)", fillcolor="#C0C0C0"] ;
2802 -> 2816 ;
3057 [label="C52: <= 0.67\nentropy = 0.881\nsamples = 974\nvalue = [682, 292]", fillcolor="#f0b78e"] ;
3 -> 3057 ;
3058 [label="B1: <= 0.5\nentropy = 0.914\nsamples = 748\nvalue = [502, 246]", fillcolor="#f2bf9a"] ;
3057 -> 3058 ;
3059 [label="C55: <= 28.533\nentropy = 0.99\nsamples = 351\nvalue = [155, 196]", fillcolor="#d6eafa"] ;
3058 -> 3059 ;
3060 [label="(...)", fillcolor="#C0C0C0"] ;
3059 -> 3060 ;
3205 [label="(...)", fillcolor="#C0C0C0"] ;
3059 -> 3205 ;
3250 [label="C136: <= 35.025\nentropy = 0.546\nsamples = 397\nvalue = [347, 50]", fillcolor="#e99356"] ;
3058 -> 3250 ;
3251 [label="(...)", fillcolor="#C0C0C0"] ;
3250 -> 3251 ;
3322 [label="(...)", fillcolor="#C0C0C0"] ;
3250 -> 3322 ;
3355 [label="C135: <= 0.0\nentropy = 0.729\nsamples = 226\nvalue = [180, 46]", fillcolor="#eca16c"] ;
3057 -> 3355 ;
3356 [label="C106: <= 0.049\nentropy = 0.981\nsamples = 31\nvalue = [18, 13]", fillcolor="#f8dcc8"] ;
3355 -> 3356 ;
3357 [label="(...)", fillcolor="#C0C0C0"] ;
3356 -> 3357 ;
3380 [label="(...)", fillcolor="#C0C0C0"] ;
3356 -> 3380 ;
3381 [label="C141: <= 1002.91\nentropy = 0.656\nsamples = 195\nvalue = [162, 33]", fillcolor="#ea9b61"] ;
3355 -> 3381 ;
3382 [label="(...)", fillcolor="#C0C0C0"] ;
3381 -> 3382 ;
3383 [label="(...)", fillcolor="#C0C0C0"] ;
3381 -> 3383 ;
3486 [label="C122: <= 0.023\nentropy = 0.816\nsamples = 439\nvalue = [328, 111]", fillcolor="#eeac7c"] ;
2 -> 3486 ;
3487 [label="C136: <= 13.947\nentropy = 0.53\nsamples = 183\nvalue = [161, 22]", fillcolor="#e99254"] ;
3486 -> 3487 ;
3488 [label="C22: <= 1.189\nentropy = 0.106\nsamples = 72\nvalue = [71, 1]", fillcolor="#e5833c"] ;
3487 -> 3488 ;
3489 [label="entropy = 0.0\nsamples = 68\nvalue = [68, 0]", fillcolor="#e58139"] ;
3488 -> 3489 ;
3490 [label="C88: <= 1.087\nentropy = 0.811\nsamples = 4\nvalue = [3, 1]", fillcolor="#eeab7b"] ;
3488 -> 3490 ;
3491 [label="(...)", fillcolor="#C0C0C0"] ;
3490 -> 3491 ;
3492 [label="(...)", fillcolor="#C0C0C0"] ;
3490 -> 3492 ;
3493 [label="B2: <= 0.5\nentropy = 0.7\nsamples = 111\nvalue = [90, 21]", fillcolor="#eb9e67"] ;
3487 -> 3493 ;
3494 [label="C100: <= 65.056\nentropy = 0.28\nsamples = 62\nvalue = [59, 3]", fillcolor="#e68743"] ;
3493 -> 3494 ;
3495 [label="(...)", fillcolor="#C0C0C0"] ;
3494 -> 3495 ;
3506 [label="(...)", fillcolor="#C0C0C0"] ;
3494 -> 3506 ;
3507 [label="C108: <= 0.011\nentropy = 0.949\nsamples = 49\nvalue = [31, 18]", fillcolor="#f4caac"] ;
3493 -> 3507 ;
3508 [label="(...)", fillcolor="#C0C0C0"] ;
3507 -> 3508 ;
3517 [label="(...)", fillcolor="#C0C0C0"] ;
3507 -> 3517 ;
3532 [label="C113: <= 0.267\nentropy = 0.932\nsamples = 256\nvalue = [167, 89]", fillcolor="#f3c4a3"] ;
3486 -> 3532 ;
3533 [label="C116: <= 4.044\nentropy = 0.945\nsamples = 245\nvalue = [156, 89]", fillcolor="#f4c9aa"] ;
3532 -> 3533 ;
3534 [label="B2: <= 0.5\nentropy = 0.932\nsamples = 236\nvalue = [154, 82]", fillcolor="#f3c4a2"] ;
3533 -> 3534 ;
3535 [label="(...)", fillcolor="#C0C0C0"] ;
3534 -> 3535 ;
3564 [label="(...)", fillcolor="#C0C0C0"] ;
3534 -> 3564 ;
3637 [label="C123: <= 0.005\nentropy = 0.764\nsamples = 9\nvalue = [2, 7]", fillcolor="#72b9ec"] ;
3533 -> 3637 ;
3638 [label="(...)", fillcolor="#C0C0C0"] ;
3637 -> 3638 ;
3639 [label="(...)", fillcolor="#C0C0C0"] ;
3637 -> 3639 ;
3648 [label="entropy = 0.0\nsamples = 11\nvalue = [11, 0]", fillcolor="#e58139"] ;
3532 -> 3648 ;
3649 [label="C47: <= 2.919\nentropy = 0.939\nsamples = 3793\nvalue = [1347, 2446]", fillcolor="#a6d3f3"] ;
1 -> 3649 ;
3650 [label="C26: <= 253.441\nentropy = 0.996\nsamples = 789\nvalue = [366, 423]", fillcolor="#e4f2fb"] ;
3649 -> 3650 ;
3651 [label="C130: <= 0.037\nentropy = 0.818\nsamples = 63\nvalue = [47, 16]", fillcolor="#eeac7c"] ;
3650 -> 3651 ;
3652 [label="YEAR: <= 2003.5\nentropy = 0.926\nsamples = 44\nvalue = [29, 15]", fillcolor="#f2c29f"] ;
3651 -> 3652 ;
3653 [label="C141: <= 1849.73\nentropy = 0.934\nsamples = 20\nvalue = [7, 13]", fillcolor="#a4d2f3"] ;
3652 -> 3653 ;
3654 [label="(...)", fillcolor="#C0C0C0"] ;
3653 -> 3654 ;
3663 [label="(...)", fillcolor="#C0C0C0"] ;
3653 -> 3663 ;
3664 [label="C36: <= 3.42\nentropy = 0.414\nsamples = 24\nvalue = [22, 2]", fillcolor="#e78c4b"] ;
3652 -> 3664 ;
3665 [label="(...)", fillcolor="#C0C0C0"] ;
3664 -> 3665 ;
3666 [label="(...)", fillcolor="#C0C0C0"] ;
3664 -> 3666 ;
3669 [label="C121: <= 0.0\nentropy = 0.297\nsamples = 19\nvalue = [18, 1]", fillcolor="#e68844"] ;
3651 -> 3669 ;
3670 [label="C77: <= 1.29\nentropy = 0.503\nsamples = 9\nvalue = [8, 1]", fillcolor="#e89152"] ;
3669 -> 3670 ;
3671 [label="(...)", fillcolor="#C0C0C0"] ;
3670 -> 3671 ;
3672 [label="(...)", fillcolor="#C0C0C0"] ;
3670 -> 3672 ;
3675 [label="entropy = 0.0\nsamples = 10\nvalue = [10, 0]", fillcolor="#e58139"] ;
3669 -> 3675 ;
3676 [label="C3: <= 0.405\nentropy = 0.989\nsamples = 726\nvalue = [319, 407]", fillcolor="#d4eaf9"] ;
3650 -> 3676 ;
3677 [label="C140: <= 1416.5\nentropy = 1.0\nsamples = 468\nvalue = [233, 235]", fillcolor="#fdfeff"] ;
3676 -> 3677 ;
3678 [label="C21: <= 0.785\nentropy = 0.969\nsamples = 244\nvalue = [147, 97]", fillcolor="#f6d4bc"] ;
3677 -> 3678 ;
3679 [label="(...)", fillcolor="#C0C0C0"] ;
3678 -> 3679 ;
3758 [label="(...)", fillcolor="#C0C0C0"] ;
3678 -> 3758 ;
3801 [label="C61: <= 3314.321\nentropy = 0.961\nsamples = 224\nvalue = [86, 138]", fillcolor="#b4daf5"] ;
3677 -> 3801 ;
3802 [label="(...)", fillcolor="#C0C0C0"] ;
3801 -> 3802 ;
3945 [label="(...)", fillcolor="#C0C0C0"] ;
3801 -> 3945 ;
3986 [label="C133: <= 0.003\nentropy = 0.918\nsamples = 258\nvalue = [86, 172]", fillcolor="#9ccef2"] ;
3676 -> 3986 ;
3987 [label="C140: <= 1368.0\nentropy = 0.985\nsamples = 110\nvalue = [47, 63]", fillcolor="#cde6f8"] ;
3986 -> 3987 ;
3988 [label="(...)", fillcolor="#C0C0C0"] ;
3987 -> 3988 ;
3993 [label="(...)", fillcolor="#C0C0C0"] ;
3987 -> 3993 ;
4070 [label="CT18: <= 4.5\nentropy = 0.832\nsamples = 148\nvalue = [39, 109]", fillcolor="#80c0ee"] ;
3986 -> 4070 ;
4071 [label="(...)", fillcolor="#C0C0C0"] ;
4070 -> 4071 ;
4076 [label="(...)", fillcolor="#C0C0C0"] ;
4070 -> 4076 ;
4151 [label="C134: <= 0.001\nentropy = 0.911\nsamples = 3004\nvalue = [981, 2023]", fillcolor="#99cdf2"] ;
3649 -> 4151 ;
4152 [label="C128: <= 0.0\nentropy = 0.945\nsamples = 2265\nvalue = [823, 1442]", fillcolor="#aad5f4"] ;
4151 -> 4152 ;
4153 [label="C127: <= 0.0\nentropy = 0.962\nsamples = 1947\nvalue = [751, 1196]", fillcolor="#b5dbf5"] ;
4152 -> 4153 ;
4154 [label="C129: <= 0.0\nentropy = 0.983\nsamples = 1205\nvalue = [509, 696]", fillcolor="#cae5f8"] ;
4153 -> 4154 ;
4155 [label="(...)", fillcolor="#C0C0C0"] ;
4154 -> 4155 ;
4910 [label="(...)", fillcolor="#C0C0C0"] ;
4154 -> 4910 ;
4927 [label="C137: <= 1.122\nentropy = 0.911\nsamples = 742\nvalue = [242, 500]", fillcolor="#99ccf2"] ;
4153 -> 4927 ;
4928 [label="(...)", fillcolor="#C0C0C0"] ;
4927 -> 4928 ;
5025 [label="(...)", fillcolor="#C0C0C0"] ;
4927 -> 5025 ;
5392 [label="C88: <= 1.134\nentropy = 0.772\nsamples = 318\nvalue = [72, 246]", fillcolor="#73baed"] ;
4152 -> 5392 ;
5393 [label="C102: <= 2.345\nentropy = 0.619\nsamples = 156\nvalue = [24, 132]", fillcolor="#5dafea"] ;
5392 -> 5393 ;
5394 [label="(...)", fillcolor="#C0C0C0"] ;
5393 -> 5394 ;
5421 [label="(...)", fillcolor="#C0C0C0"] ;
5393 -> 5421 ;
5442 [label="C68: <= 30.0\nentropy = 0.877\nsamples = 162\nvalue = [48, 114]", fillcolor="#8cc6f0"] ;
5392 -> 5442 ;
5443 [label="(...)", fillcolor="#C0C0C0"] ;
5442 -> 5443 ;
5444 [label="(...)", fillcolor="#C0C0C0"] ;
5442 -> 5444 ;
5555 [label="C123: <= 0.003\nentropy = 0.749\nsamples = 739\nvalue = [158, 581]", fillcolor="#6fb8ec"] ;
4151 -> 5555 ;
5556 [label="C37: <= 77.76\nentropy = 0.802\nsamples = 541\nvalue = [132, 409]", fillcolor="#79bded"] ;
5555 -> 5556 ;
5557 [label="C32: <= 216.855\nentropy = 0.818\nsamples = 519\nvalue = [132, 387]", fillcolor="#7dbeee"] ;
5556 -> 5557 ;
5558 [label="(...)", fillcolor="#C0C0C0"] ;
5557 -> 5558 ;
5583 [label="(...)", fillcolor="#C0C0C0"] ;
5557 -> 5583 ;
5844 [label="entropy = 0.0\nsamples = 22\nvalue = [0, 22]", fillcolor="#399de5"] ;
5556 -> 5844 ;
5845 [label="C104: <= 10.669\nentropy = 0.561\nsamples = 198\nvalue = [26, 172]", fillcolor="#57ace9"] ;
5555 -> 5845 ;
5846 [label="C139: <= 0.466\nentropy = 0.802\nsamples = 45\nvalue = [11, 34]", fillcolor="#79bded"] ;
5845 -> 5846 ;
5847 [label="(...)", fillcolor="#C0C0C0"] ;
5846 -> 5847 ;
5874 [label="(...)", fillcolor="#C0C0C0"] ;
5846 -> 5874 ;
5875 [label="C112: <= 0.407\nentropy = 0.463\nsamples = 153\nvalue = [15, 138]", fillcolor="#4fa8e8"] ;
5845 -> 5875 ;
5876 [label="(...)", fillcolor="#C0C0C0"] ;
5875 -> 5876 ;
5923 [label="(...)", fillcolor="#C0C0C0"] ;
5875 -> 5923 ;
5930 [label="C35: <= 22.005\nentropy = 0.939\nsamples = 410\nvalue = [264, 146]", fillcolor="#f3c7a6"] ;
0 -> 5930 [labeldistance=2.5, labelangle=-45, headlabel="False"] ;
5931 [label="C140: <= 1548.0\nentropy = 0.913\nsamples = 357\nvalue = [240, 117]", fillcolor="#f2be9a"] ;
5930 -> 5931 ;
5932 [label="C28: <= 760.505\nentropy = 0.882\nsamples = 329\nvalue = [230, 99]", fillcolor="#f0b78e"] ;
5931 -> 5932 ;
5933 [label="C104: <= 10.651\nentropy = 0.899\nsamples = 314\nvalue = [215, 99]", fillcolor="#f1bb94"] ;
5932 -> 5933 ;
5934 [label="C92: <= 9.3\nentropy = 0.619\nsamples = 39\nvalue = [33, 6]", fillcolor="#ea985d"] ;
5933 -> 5934 ;
5935 [label="entropy = 0.0\nsamples = 1\nvalue = [0, 1]", fillcolor="#399de5"] ;
5934 -> 5935 ;
5936 [label="C139: <= 0.387\nentropy = 0.562\nsamples = 38\nvalue = [33, 5]", fillcolor="#e99457"] ;
5934 -> 5936 ;
5937 [label="(...)", fillcolor="#C0C0C0"] ;
5936 -> 5937 ;
5938 [label="(...)", fillcolor="#C0C0C0"] ;
5936 -> 5938 ;
5965 [label="C27: <= 16.132\nentropy = 0.923\nsamples = 275\nvalue = [182, 93]", fillcolor="#f2c19e"] ;
5933 -> 5965 ;
5966 [label="C18: <= 24.101\nentropy = 0.944\nsamples = 238\nvalue = [152, 86]", fillcolor="#f4c8a9"] ;
5965 -> 5966 ;
5967 [label="(...)", fillcolor="#C0C0C0"] ;
5966 -> 5967 ;
6104 [label="(...)", fillcolor="#C0C0C0"] ;
5966 -> 6104 ;
6119 [label="C17: <= 20.672\nentropy = 0.7\nsamples = 37\nvalue = [30, 7]", fillcolor="#eb9e67"] ;
5965 -> 6119 ;
6120 [label="(...)", fillcolor="#C0C0C0"] ;
6119 -> 6120 ;
6137 [label="(...)", fillcolor="#C0C0C0"] ;
6119 -> 6137 ;
6142 [label="entropy = 0.0\nsamples = 15\nvalue = [15, 0]", fillcolor="#e58139"] ;
5932 -> 6142 ;
6143 [label="C85: <= 1.114\nentropy = 0.94\nsamples = 28\nvalue = [10, 18]", fillcolor="#a7d3f3"] ;
5931 -> 6143 ;
6144 [label="C141: <= 2006.105\nentropy = 0.619\nsamples = 13\nvalue = [2, 11]", fillcolor="#5dafea"] ;
6143 -> 6144 ;
6145 [label="entropy = 0.0\nsamples = 5\nvalue = [0, 5]", fillcolor="#399de5"] ;
6144 -> 6145 ;
6146 [label="C55: <= 9.732\nentropy = 0.811\nsamples = 8\nvalue = [2, 6]", fillcolor="#7bbeee"] ;
6144 -> 6146 ;
6147 [label="C34: <= 8.955\nentropy = 0.971\nsamples = 5\nvalue = [2, 3]", fillcolor="#bddef6"] ;
6146 -> 6147 ;
6148 [label="(...)", fillcolor="#C0C0C0"] ;
6147 -> 6148 ;
6151 [label="(...)", fillcolor="#C0C0C0"] ;
6147 -> 6151 ;
6154 [label="entropy = 0.0\nsamples = 3\nvalue = [0, 3]", fillcolor="#399de5"] ;
6146 -> 6154 ;
6155 [label="C44: <= 58.635\nentropy = 0.997\nsamples = 15\nvalue = [8, 7]", fillcolor="#fcefe6"] ;
6143 -> 6155 ;
6156 [label="entropy = 0.0\nsamples = 3\nvalue = [3, 0]", fillcolor="#e58139"] ;
6155 -> 6156 ;
6157 [label="C58: <= 9.476\nentropy = 0.98\nsamples = 12\nvalue = [5, 7]", fillcolor="#c6e3f8"] ;
6155 -> 6157 ;
6158 [label="entropy = 0.0\nsamples = 2\nvalue = [0, 2]", fillcolor="#399de5"] ;
6157 -> 6158 ;
6159 [label="C83: <= 1.126\nentropy = 1.0\nsamples = 10\nvalue = [5, 5]", fillcolor="#ffffff"] ;
6157 -> 6159 ;
6160 [label="(...)", fillcolor="#C0C0C0"] ;
6159 -> 6160 ;
6171 [label="(...)", fillcolor="#C0C0C0"] ;
6159 -> 6171 ;
6176 [label="C39: <= 4.23\nentropy = 0.994\nsamples = 53\nvalue = [24, 29]", fillcolor="#ddeefb"] ;
5930 -> 6176 ;
6177 [label="C25: <= 8.978\nentropy = 0.976\nsamples = 49\nvalue = [20, 29]", fillcolor="#c2e1f7"] ;
6176 -> 6177 ;
6178 [label="C79: <= 1.12\nentropy = 0.95\nsamples = 46\nvalue = [17, 29]", fillcolor="#add6f4"] ;
6177 -> 6178 ;
6179 [label="C89: <= 1.158\nentropy = 0.979\nsamples = 41\nvalue = [17, 24]", fillcolor="#c5e2f7"] ;
6178 -> 6179 ;
6180 [label="C137: <= 1.138\nentropy = 0.961\nsamples = 39\nvalue = [15, 24]", fillcolor="#b5daf5"] ;
6179 -> 6180 ;
6181 [label="(...)", fillcolor="#C0C0C0"] ;
6180 -> 6181 ;
6224 [label="(...)", fillcolor="#C0C0C0"] ;
6180 -> 6224 ;
6225 [label="entropy = 0.0\nsamples = 2\nvalue = [2, 0]", fillcolor="#e58139"] ;
6179 -> 6225 ;
6226 [label="entropy = 0.0\nsamples = 5\nvalue = [0, 5]", fillcolor="#399de5"] ;
6178 -> 6226 ;
6227 [label="entropy = 0.0\nsamples = 3\nvalue = [3, 0]", fillcolor="#e58139"] ;
6177 -> 6227 ;
6228 [label="entropy = 0.0\nsamples = 4\nvalue = [4, 0]", fillcolor="#e58139"] ;
6176 -> 6228 ;
}